{
  "levels": [
    {
      "inputs": [
        0.15147186257614287,
        0.7517713887328125,
        0.7706666666665448,
        0.7517713887328125,
        0.15147186257614298
      ],
      "outputs": [
        0,
        0,
        0,
        0,
        1,
        1
      ],
      "biases": [
        -0.9107803991890335,
        -0.022387855743764007,
        0.4040677094651699,
        0.29348317676466307,
        0.7097578999230152,
        0.19181006846900361
      ],
      "weights": [
        [
          -0.46712153397839806,
          0.8170571890832985,
          0.633285254969115,
          0.49059513340892114,
          0.7258956162401498,
          0.6098948469426804
        ],
        [
          -0.8863583835601879,
          -0.9196807342100061,
          -0.3539930024223029,
          -0.5545083510910633,
          0.4186150714052941,
          0.9509732589458473
        ],
        [
          -0.6407692511542296,
          0.2063262609821761,
          -0.7189825092368856,
          -0.8433700707879547,
          0.09672471879204814,
          -0.645227514909456
        ],
        [
          -0.35336332894811384,
          0.07749505091455999,
          -0.7444073906266566,
          -0.17066899123202228,
          0.8526449049923726,
          0.6605199752160777
        ],
        [
          -0.7450337529573188,
          0.10344025378045196,
          0.6226779425216731,
          -0.06564701342649715,
          -0.03088408601893544,
          -0.9503524918373241
        ]
      ]
    },
    {
      "inputs": [
        0,
        0,
        0,
        0,
        1,
        1
      ],
      "outputs": [
        1,
        0,
        1,
        1,
        1,
        1,
        0,
        0
      ],
      "biases": [
        -0.7436210615864154,
        0.5229247215960018,
        -0.7585275404968873,
        -0.9109106023556844,
        0.20913001920502405,
        -0.4924044494246187,
        -0.5337894299242908,
        0.2023906171626615
      ],
      "weights": [
        [
          0.26109882576945553,
          0.43494818741161767,
          -0.9636683887936686,
          -0.622217513021806,
          -0.22302649172039468,
          0.925515544042838,
          0.009339264796980107,
          -0.6995506616708231
        ],
        [
          0.9668021837592007,
          0.8078864432217538,
          0.2589819745298121,
          -0.8535533200034977,
          0.7591693364416596,
          -0.06895243736687251,
          0.9086285339918487,
          -0.8949173026493967
        ],
        [
          -0.8324171115671293,
          -0.4857606138694355,
          -0.3302234348833675,
          0.1189378058136854,
          0.35715848078007517,
          0.10622480605848894,
          0.3874894366486126,
          -0.7569223112313772
        ],
        [
          -0.5829788089386769,
          0.2448989017628347,
          -0.5929604894917161,
          -0.9650190271597354,
          -0.2915427634130079,
          0.4376688912757636,
          -0.9054354993198108,
          0.4226379019643516
        ],
        [
          0.4259083235434413,
          -0.5932645069897233,
          -0.2108437131616705,
          -0.48183683615097606,
          0.6781447227091273,
          -0.2962300914995448,
          -0.5056785671450867,
          -0.32892999164847636
        ],
        [
          0.8084375937566854,
          -0.31333902941392855,
          0.600178631336886,
          0.4648956801184232,
          0.029016545657741366,
          0.31026848661344864,
          -0.44115935961459585,
          -0.33923226528019157
        ]
      ]
    },
    {
      "inputs": [
        1,
        0,
        1,
        1,
        1,
        1,
        0,
        0
      ],
      "outputs": [
        0,
        0,
        0,
        0
      ],
      "biases": [
        -0.39257488645534766,
        -0.6050489602331754,
        -0.8555557197722055,
        -0.38359008165391517
      ],
      "weights": [
        [
          -0.49433666168532275,
          -0.27578610716119145,
          -0.8640996351099046,
          0.16233122243106846
        ],
        [
          -0.7588201859499442,
          0.29158686088648134,
          0.44950947508335526,
          -0.039401054499678345
        ],
        [
          -0.2161782581678413,
          -0.45935540103606476,
          -0.6641909166828792,
          -0.24108227957490724
        ],
        [
          -0.6666670720069803,
          -0.05527240872796346,
          -0.9264084366337079,
          0.10857474129749911
        ],
        [
          0.6286813531255151,
          0.5915226628372503,
          0.6415490279710201,
          -0.26535487557583415
        ],
        [
          0.044886847006566866,
          -0.9494175147687017,
          0.35553790994863066,
          -0.28856257894113824
        ],
        [
          0.8030618845962796,
          0.546475379276961,
          -0.4197074363058212,
          -0.5069524597917188
        ],
        [
          0.7008526835546252,
          0.15653386887214382,
          0.2709855861910626,
          0.5654217826033499
        ]
      ]
    }
  ]
}